<?xml version="1.0" encoding="EUC-JP"?>
<PMML version="2.1">
  <Header copyright="www.dmg.org"/>
  <DataDictionary numberOfFields="2">
    <DataField name="atomy" optype="categorical">
      <Value value="H"/>
      <Value value="C"/>
    </DataField>
    <DataField name="bondtype" optype="categorical">
      <Value value="singlebond"/>
      <Value value="doublebond"/>
    </DataField>
  </DataDictionary>
  <GraphModel functionName="associationRules">
    <MiningScema>
      <MiningField name="atomy"/>
      <MiningField name="bondtype"/>
    </MiningScema>
    <Graph graphId="2" miningStatus="induced" support="1.000">
      <Vertex vertexId="1" dimension="1">
        <VertexLabel field="atomy" value="H"/>
      </Vertex>
    </Graph>
    <Graph graphId="3" miningStatus="induced" support="1.000">
      <Vertex vertexId="1" dimension="1">
        <VertexLabel field="atomy" value="C"/>
      </Vertex>
    </Graph>
    <Graph graphId="4" miningStatus="induced" support="1.000">
      <Vertex vertexId="1" dimension="1">
        <VertexLabel field="atomy" value="H"/>
      </Vertex>
      <Vertex vertexId="2" dimension="1">
        <VertexLabel field="atomy" value="H"/>
      </Vertex>
    </Graph>
    <Graph graphId="7" miningStatus="induced" support="1.000">
      <Vertex vertexId="1" dimension="1">
        <VertexLabel field="atomy" value="H"/>
      </Vertex>
      <Vertex vertexId="2" dimension="1">
        <VertexLabel field="atomy" value="C"/>
      </Vertex>
    </Graph>
    <Graph graphId="8" miningStatus="induced" support="1.000">
      <Vertex vertexId="1" dimension="1">
        <VertexLabel field="atomy" value="H"/>
      </Vertex>
      <Vertex vertexId="2" dimension="1">
        <VertexLabel field="atomy" value="C"/>
      </Vertex>
      <Edge edgeId="1" edgeType="undirected" dimension="1" bgnVertexId="1" endVertexId="2">
        <EdgeLabel field="bondtype" value="singlebond"/>
      </Edge>
    </Graph>
    <Graph graphId="12" miningStatus="induced" support="1.000">
      <Vertex vertexId="1" dimension="1">
        <VertexLabel field="atomy" value="C"/>
      </Vertex>
      <Vertex vertexId="2" dimension="1">
        <VertexLabel field="atomy" value="C"/>
      </Vertex>
      <Edge edgeId="1" edgeType="undirected" dimension="1" bgnVertexId="1" endVertexId="2">
        <EdgeLabel field="bondtype" value="doublebond"/>
      </Edge>
    </Graph>
    <Graph graphId="13" miningStatus="induced" support="1.000">
      <Vertex vertexId="1" dimension="1">
        <VertexLabel field="atomy" value="H"/>
      </Vertex>
      <Vertex vertexId="2" dimension="1">
        <VertexLabel field="atomy" value="H"/>
      </Vertex>
      <Vertex vertexId="3" dimension="1">
        <VertexLabel field="atomy" value="H"/>
      </Vertex>
    </Graph>
    <Graph graphId="14" miningStatus="induced" support="1.000">
      <Vertex vertexId="1" dimension="1">
        <VertexLabel field="atomy" value="H"/>
      </Vertex>
      <Vertex vertexId="2" dimension="1">
        <VertexLabel field="atomy" value="H"/>
      </Vertex>
      <Vertex vertexId="3" dimension="1">
        <VertexLabel field="atomy" value="C"/>
      </Vertex>
    </Graph>
    <Graph graphId="15" miningStatus="induced" support="1.000">
      <Vertex vertexId="1" dimension="1">
        <VertexLabel field="atomy" value="H"/>
      </Vertex>
      <Vertex vertexId="2" dimension="1">
        <VertexLabel field="atomy" value="H"/>
      </Vertex>
      <Vertex vertexId="3" dimension="1">
        <VertexLabel field="atomy" value="C"/>
      </Vertex>
      <Edge edgeId="1" edgeType="undirected" dimension="1" bgnVertexId="2" endVertexId="3">
        <EdgeLabel field="bondtype" value="singlebond"/>
      </Edge>
    </Graph>
    <Graph graphId="17" miningStatus="induced" support="1.000">
      <Vertex vertexId="1" dimension="1">
        <VertexLabel field="atomy" value="H"/>
      </Vertex>
      <Vertex vertexId="2" dimension="1">
        <VertexLabel field="atomy" value="H"/>
      </Vertex>
      <Vertex vertexId="3" dimension="1">
        <VertexLabel field="atomy" value="C"/>
      </Vertex>
      <Edge edgeId="1" edgeType="undirected" dimension="1" bgnVertexId="1" endVertexId="3">
        <EdgeLabel field="bondtype" value="singlebond"/>
      </Edge>
      <Edge edgeId="2" edgeType="undirected" dimension="1" bgnVertexId="2" endVertexId="3">
        <EdgeLabel field="bondtype" value="singlebond"/>
      </Edge>
    </Graph>
    <Graph graphId="19" miningStatus="induced" support="1.000">
      <Vertex vertexId="1" dimension="1">
        <VertexLabel field="atomy" value="H"/>
      </Vertex>
      <Vertex vertexId="2" dimension="1">
        <VertexLabel field="atomy" value="C"/>
      </Vertex>
      <Vertex vertexId="3" dimension="1">
        <VertexLabel field="atomy" value="C"/>
      </Vertex>
      <Edge edgeId="1" edgeType="undirected" dimension="1" bgnVertexId="1" endVertexId="3">
        <EdgeLabel field="bondtype" value="singlebond"/>
      </Edge>
      <Edge edgeId="2" edgeType="undirected" dimension="1" bgnVertexId="2" endVertexId="3">
        <EdgeLabel field="bondtype" value="doublebond"/>
      </Edge>
    </Graph>
    <Graph graphId="22" miningStatus="induced" support="1.000">
      <Vertex vertexId="1" dimension="1">
        <VertexLabel field="atomy" value="H"/>
      </Vertex>
      <Vertex vertexId="2" dimension="1">
        <VertexLabel field="atomy" value="H"/>
      </Vertex>
      <Vertex vertexId="3" dimension="1">
        <VertexLabel field="atomy" value="H"/>
      </Vertex>
      <Vertex vertexId="4" dimension="1">
        <VertexLabel field="atomy" value="H"/>
      </Vertex>
    </Graph>
    <Graph graphId="24" miningStatus="induced" support="1.000">
      <Vertex vertexId="1" dimension="1">
        <VertexLabel field="atomy" value="H"/>
      </Vertex>
      <Vertex vertexId="2" dimension="1">
        <VertexLabel field="atomy" value="H"/>
      </Vertex>
      <Vertex vertexId="3" dimension="1">
        <VertexLabel field="atomy" value="H"/>
      </Vertex>
      <Vertex vertexId="4" dimension="1">
        <VertexLabel field="atomy" value="C"/>
      </Vertex>
      <Edge edgeId="1" edgeType="undirected" dimension="1" bgnVertexId="3" endVertexId="4">
        <EdgeLabel field="bondtype" value="singlebond"/>
      </Edge>
    </Graph>
    <Graph graphId="26" miningStatus="induced" support="1.000">
      <Vertex vertexId="1" dimension="1">
        <VertexLabel field="atomy" value="H"/>
      </Vertex>
      <Vertex vertexId="2" dimension="1">
        <VertexLabel field="atomy" value="H"/>
      </Vertex>
      <Vertex vertexId="3" dimension="1">
        <VertexLabel field="atomy" value="H"/>
      </Vertex>
      <Vertex vertexId="4" dimension="1">
        <VertexLabel field="atomy" value="C"/>
      </Vertex>
      <Edge edgeId="1" edgeType="undirected" dimension="1" bgnVertexId="2" endVertexId="4">
        <EdgeLabel field="bondtype" value="singlebond"/>
      </Edge>
      <Edge edgeId="2" edgeType="undirected" dimension="1" bgnVertexId="3" endVertexId="4">
        <EdgeLabel field="bondtype" value="singlebond"/>
      </Edge>
    </Graph>
    <Graph graphId="31" miningStatus="induced" support="1.000">
      <Vertex vertexId="1" dimension="1">
        <VertexLabel field="atomy" value="H"/>
      </Vertex>
      <Vertex vertexId="2" dimension="1">
        <VertexLabel field="atomy" value="H"/>
      </Vertex>
      <Vertex vertexId="3" dimension="1">
        <VertexLabel field="atomy" value="C"/>
      </Vertex>
      <Vertex vertexId="4" dimension="1">
        <VertexLabel field="atomy" value="C"/>
      </Vertex>
      <Edge edgeId="1" edgeType="undirected" dimension="1" bgnVertexId="1" endVertexId="4">
        <EdgeLabel field="bondtype" value="singlebond"/>
      </Edge>
      <Edge edgeId="2" edgeType="undirected" dimension="1" bgnVertexId="2" endVertexId="4">
        <EdgeLabel field="bondtype" value="singlebond"/>
      </Edge>
      <Edge edgeId="3" edgeType="undirected" dimension="1" bgnVertexId="3" endVertexId="4">
        <EdgeLabel field="bondtype" value="doublebond"/>
      </Edge>
    </Graph>
    <Graph graphId="32" miningStatus="induced" support="1.000">
      <Vertex vertexId="1" dimension="1">
        <VertexLabel field="atomy" value="H"/>
      </Vertex>
      <Vertex vertexId="2" dimension="1">
        <VertexLabel field="atomy" value="H"/>
      </Vertex>
      <Vertex vertexId="3" dimension="1">
        <VertexLabel field="atomy" value="C"/>
      </Vertex>
      <Vertex vertexId="4" dimension="1">
        <VertexLabel field="atomy" value="C"/>
      </Vertex>
      <Edge edgeId="1" edgeType="undirected" dimension="1" bgnVertexId="1" endVertexId="4">
        <EdgeLabel field="bondtype" value="singlebond"/>
      </Edge>
      <Edge edgeId="2" edgeType="undirected" dimension="1" bgnVertexId="2" endVertexId="3">
        <EdgeLabel field="bondtype" value="singlebond"/>
      </Edge>
      <Edge edgeId="3" edgeType="undirected" dimension="1" bgnVertexId="3" endVertexId="4">
        <EdgeLabel field="bondtype" value="doublebond"/>
      </Edge>
    </Graph>
    <Graph graphId="34" miningStatus="induced" support="1.000">
      <Vertex vertexId="1" dimension="1">
        <VertexLabel field="atomy" value="H"/>
      </Vertex>
      <Vertex vertexId="2" dimension="1">
        <VertexLabel field="atomy" value="H"/>
      </Vertex>
      <Vertex vertexId="3" dimension="1">
        <VertexLabel field="atomy" value="H"/>
      </Vertex>
      <Vertex vertexId="4" dimension="1">
        <VertexLabel field="atomy" value="H"/>
      </Vertex>
      <Vertex vertexId="5" dimension="1">
        <VertexLabel field="atomy" value="C"/>
      </Vertex>
      <Edge edgeId="1" edgeType="undirected" dimension="1" bgnVertexId="3" endVertexId="5">
        <EdgeLabel field="bondtype" value="singlebond"/>
      </Edge>
      <Edge edgeId="2" edgeType="undirected" dimension="1" bgnVertexId="4" endVertexId="5">
        <EdgeLabel field="bondtype" value="singlebond"/>
      </Edge>
    </Graph>
    <Graph graphId="40" miningStatus="induced" support="1.000">
      <Vertex vertexId="1" dimension="1">
        <VertexLabel field="atomy" value="H"/>
      </Vertex>
      <Vertex vertexId="2" dimension="1">
        <VertexLabel field="atomy" value="H"/>
      </Vertex>
      <Vertex vertexId="3" dimension="1">
        <VertexLabel field="atomy" value="H"/>
      </Vertex>
      <Vertex vertexId="4" dimension="1">
        <VertexLabel field="atomy" value="C"/>
      </Vertex>
      <Vertex vertexId="5" dimension="1">
        <VertexLabel field="atomy" value="C"/>
      </Vertex>
      <Edge edgeId="1" edgeType="undirected" dimension="1" bgnVertexId="1" endVertexId="5">
        <EdgeLabel field="bondtype" value="singlebond"/>
      </Edge>
      <Edge edgeId="2" edgeType="undirected" dimension="1" bgnVertexId="2" endVertexId="5">
        <EdgeLabel field="bondtype" value="singlebond"/>
      </Edge>
      <Edge edgeId="3" edgeType="undirected" dimension="1" bgnVertexId="3" endVertexId="4">
        <EdgeLabel field="bondtype" value="singlebond"/>
      </Edge>
      <Edge edgeId="4" edgeType="undirected" dimension="1" bgnVertexId="4" endVertexId="5">
        <EdgeLabel field="bondtype" value="doublebond"/>
      </Edge>
    </Graph>
    <Graph graphId="43" miningStatus="induced" support="1.000">
      <Vertex vertexId="1" dimension="1">
        <VertexLabel field="atomy" value="H"/>
      </Vertex>
      <Vertex vertexId="2" dimension="1">
        <VertexLabel field="atomy" value="H"/>
      </Vertex>
      <Vertex vertexId="3" dimension="1">
        <VertexLabel field="atomy" value="H"/>
      </Vertex>
      <Vertex vertexId="4" dimension="1">
        <VertexLabel field="atomy" value="H"/>
      </Vertex>
      <Vertex vertexId="5" dimension="1">
        <VertexLabel field="atomy" value="C"/>
      </Vertex>
      <Vertex vertexId="6" dimension="1">
        <VertexLabel field="atomy" value="C"/>
      </Vertex>
      <Edge edgeId="1" edgeType="undirected" dimension="1" bgnVertexId="1" endVertexId="6">
        <EdgeLabel field="bondtype" value="singlebond"/>
      </Edge>
      <Edge edgeId="2" edgeType="undirected" dimension="1" bgnVertexId="2" endVertexId="6">
        <EdgeLabel field="bondtype" value="singlebond"/>
      </Edge>
      <Edge edgeId="3" edgeType="undirected" dimension="1" bgnVertexId="3" endVertexId="5">
        <EdgeLabel field="bondtype" value="singlebond"/>
      </Edge>
      <Edge edgeId="4" edgeType="undirected" dimension="1" bgnVertexId="4" endVertexId="5">
        <EdgeLabel field="bondtype" value="singlebond"/>
      </Edge>
      <Edge edgeId="5" edgeType="undirected" dimension="1" bgnVertexId="5" endVertexId="6">
        <EdgeLabel field="bondtype" value="doublebond"/>
      </Edge>
    </Graph>
  </GraphModel>
</PMML>
